<?xml version="1.0"?>
<opencv_storage>
<stage9>
  <maxWeakCount>8</maxWeakCount>
  <stageThreshold>-7.1248269081115723e-01</stageThreshold>
  <weakClassifiers>
    <_>
      <internalNodes>
        0 -1 48836 -5.8141034096479416e-03</internalNodes>
      <leafValues>
        5.6060606241226196e-01 -4.8299318552017212e-01</leafValues></_>
    <_>
      <internalNodes>
        0 -1 69016 3.6332048475742340e-03</internalNodes>
      <leafValues>
        -5.2905941009521484e-01 4.6161708235740662e-01</leafValues></_>
    <_>
      <internalNodes>
        0 -1 63727 -5.8966292999684811e-03</internalNodes>
      <leafValues>
        -8.1643354892730713e-01 2.1316881477832794e-01</leafValues></_>
    <_>
      <internalNodes>
        0 -1 60895 2.1112686954438686e-03</internalNodes>
      <leafValues>
        1.5859231352806091e-01 -9.4260448217391968e-01</leafValues></_>
    <_>
      <internalNodes>
        0 -1 49018 2.1254611201584339e-03</internalNodes>
      <leafValues>
        -5.0207251310348511e-01 3.9907044172286987e-01</leafValues></_>
    <_>
      <internalNodes>
        0 -1 42089 3.5542227327823639e-02</internalNodes>
      <leafValues>
        1.7167729139328003e-01 -9.2748910188674927e-01</leafValues></_>
    <_>
      <internalNodes>
        0 -1 69862 -1.3711313717067242e-02</internalNodes>
      <leafValues>
        -7.6741045713424683e-01 1.9738945364952087e-01</leafValues></_>
    <_>
      <internalNodes>
        0 -1 30971 -1.0215118527412415e-02</internalNodes>
      <leafValues>
        -8.4032839536666870e-01 1.4853245019912720e-01</leafValues></_></weakClassifiers></stage9>
</opencv_storage>
