<?xml version="1.0"?>
<opencv_storage>
<stage5>
  <maxWeakCount>6</maxWeakCount>
  <stageThreshold>-6.7667925357818604e-01</stageThreshold>
  <weakClassifiers>
    <_>
      <internalNodes>
        0 -1 63662 -1.7797353211790323e-04</internalNodes>
      <leafValues>
        6.2536025047302246e-01 -6.5048545598983765e-01</leafValues></_>
    <_>
      <internalNodes>
        0 -1 2371 1.4228710532188416e-01</internalNodes>
      <leafValues>
        -4.8250132799148560e-01 5.4986196756362915e-01</leafValues></_>
    <_>
      <internalNodes>
        0 -1 54275 -3.6673115100711584e-03</internalNodes>
      <leafValues>
        3.1110996007919312e-01 -7.8543215990066528e-01</leafValues></_>
    <_>
      <internalNodes>
        0 -1 34696 1.1463750898838043e-01</internalNodes>
      <leafValues>
        -3.0587714910507202e-01 8.6520516872406006e-01</leafValues></_>
    <_>
      <internalNodes>
        0 -1 67104 -1.8028467893600464e-02</internalNodes>
      <leafValues>
        -9.2266225814819336e-01 2.1649485826492310e-01</leafValues></_>
    <_>
      <internalNodes>
        0 -1 67104 -1.3566452544182539e-03</internalNodes>
      <leafValues>
        2.3457981646060944e-01 -8.4196841716766357e-01</leafValues></_></weakClassifiers></stage5>
</opencv_storage>
