<?xml version="1.0"?>
<opencv_storage>
<cascade>
  <stageType>BOOST</stageType>
  <featureType>HAAR</featureType>
  <height>20</height>
  <width>20</width>
  <stageParams>
    <boostType>GAB</boostType>
    <minHitRate>9.9500000476837158e-01</minHitRate>
    <maxFalseAlarm>5.0000000000000000e-01</maxFalseAlarm>
    <weightTrimRate>9.4999999999999996e-01</weightTrimRate>
    <maxDepth>1</maxDepth>
    <maxWeakCount>100</maxWeakCount></stageParams>
  <featureParams>
    <maxCatCount>0</maxCatCount>
    <featSize>1</featSize>
    <mode>BASIC</mode></featureParams>
  <stageNum>8</stageNum>
  <stages>
    <!-- stage 0 -->
    <_>
      <maxWeakCount>2</maxWeakCount>
      <stageThreshold>-3.9966356009244919e-02</stageThreshold>
      <weakClassifiers>
        <_>
          <internalNodes>
            0 -1 14 -1.2823309749364853e-02</internalNodes>
          <leafValues>
            7.1400588750839233e-01 -8.4802430868148804e-01</leafValues></_>
        <_>
          <internalNodes>
            0 -1 17 2.5952845811843872e-02</internalNodes>
          <leafValues>
            -4.8086878657341003e-01 8.0805796384811401e-01</leafValues></_></weakClassifiers></_>
    <!-- stage 1 -->
    <_>
      <maxWeakCount>7</maxWeakCount>
      <stageThreshold>-8.4211432933807373e-01</stageThreshold>
      <weakClassifiers>
        <_>
          <internalNodes>
            0 -1 31 3.1707644462585449e-02</internalNodes>
          <leafValues>
            -3.7153419852256775e-01 8.0469715595245361e-01</leafValues></_>
        <_>
          <internalNodes>
            0 -1 12 -1.9305737689137459e-02</internalNodes>
          <leafValues>
            7.4509274959564209e-01 -4.2193096876144409e-01</leafValues></_>
        <_>
          <internalNodes>
            0 -1 3 7.4757002294063568e-03</internalNodes>
          <leafValues>
            -7.0643305778503418e-01 4.7102653980255127e-01</leafValues></_>
        <_>
          <internalNodes>
            0 -1 40 -1.8267867853865027e-03</internalNodes>
          <leafValues>
            4.4545432925224304e-01 -6.6863930225372314e-01</leafValues></_>
        <_>
          <internalNodes>
            0 -1 45 2.8608836233615875e-02</internalNodes>
          <leafValues>
            -3.6060485243797302e-01 7.4986052513122559e-01</leafValues></_>
        <_>
          <internalNodes>
            0 -1 18 -1.5766549855470657e-02</internalNodes>
          <leafValues>
            -9.3373405933380127e-01 2.9873374104499817e-01</leafValues></_>
        <_>
          <internalNodes>
            0 -1 33 -1.0701129212975502e-03</internalNodes>
          <leafValues>
            2.7420067787170410e-01 -8.5225605964660645e-01</leafValues></_></weakClassifiers></_>
    <!-- stage 2 -->
    <_>
      <maxWeakCount>5</maxWeakCount>
      <stageThreshold>-8.7573629617691040e-01</stageThreshold>
      <weakClassifiers>
        <_>
          <internalNodes>
            0 -1 37 -1.0886158794164658e-02</internalNodes>
          <leafValues>
            -8.4771573543548584e-01 5.3512573242187500e-01</leafValues></_>
        <_>
          <internalNodes>
            0 -1 26 6.6286372020840645e-03</internalNodes>
          <leafValues>
            3.6250078678131104e-01 -9.0915614366531372e-01</leafValues></_>
        <_>
          <internalNodes>
            0 -1 2 5.8868736028671265e-02</internalNodes>
          <leafValues>
            -3.9316761493682861e-01 7.9251599311828613e-01</leafValues></_>
        <_>
          <internalNodes>
            0 -1 28 -1.4573147520422935e-02</internalNodes>
          <leafValues>
            6.1418575048446655e-01 -4.1505101323127747e-01</leafValues></_>
        <_>
          <internalNodes>
            0 -1 38 -6.4400769770145416e-04</internalNodes>
          <leafValues>
            3.0651274323463440e-01 -8.8068318367004395e-01</leafValues></_></weakClassifiers></_>
    <!-- stage 3 -->
    <_>
      <maxWeakCount>5</maxWeakCount>
      <stageThreshold>-5.3110665082931519e-01</stageThreshold>
      <weakClassifiers>
        <_>
          <internalNodes>
            0 -1 25 2.0795518532395363e-02</internalNodes>
          <leafValues>
            6.0547947883605957e-01 -8.3529412746429443e-01</leafValues></_>
        <_>
          <internalNodes>
            0 -1 0 7.2258517146110535e-02</internalNodes>
          <leafValues>
            -4.0828377008438110e-01 6.2618684768676758e-01</leafValues></_>
        <_>
          <internalNodes>
            0 -1 36 -4.2357454076409340e-03</internalNodes>
          <leafValues>
            -8.7575262784957886e-01 2.8523510694503784e-01</leafValues></_>
        <_>
          <internalNodes>
            0 -1 44 1.0785080958157778e-03</internalNodes>
          <leafValues>
            -6.9098848104476929e-01 2.9948920011520386e-01</leafValues></_>
        <_>
          <internalNodes>
            0 -1 20 -1.8283251672983170e-02</internalNodes>
          <leafValues>
            -9.0672367811203003e-01 2.1937258541584015e-01</leafValues></_></weakClassifiers></_>
    <!-- stage 4 -->
    <_>
      <maxWeakCount>6</maxWeakCount>
      <stageThreshold>-5.7683926820755005e-01</stageThreshold>
      <weakClassifiers>
        <_>
          <internalNodes>
            0 -1 13 -5.1199169829487801e-03</internalNodes>
          <leafValues>
            5.4075372219085693e-01 -7.9904305934906006e-01</leafValues></_>
        <_>
          <internalNodes>
            0 -1 10 -2.7715034782886505e-02</internalNodes>
          <leafValues>
            -9.4219022989273071e-01 3.2582899928092957e-01</leafValues></_>
        <_>
          <internalNodes>
            0 -1 16 -6.1567341908812523e-03</internalNodes>
          <leafValues>
            4.9949610233306885e-01 -5.1597493886947632e-01</leafValues></_>
        <_>
          <internalNodes>
            0 -1 8 2.9731508344411850e-02</internalNodes>
          <leafValues>
            -3.3673647046089172e-01 7.0297646522521973e-01</leafValues></_>
        <_>
          <internalNodes>
            0 -1 1 2.4757467210292816e-02</internalNodes>
          <leafValues>
            -3.6795881390571594e-01 5.8157449960708618e-01</leafValues></_>
        <_>
          <internalNodes>
            0 -1 32 2.7619234751909971e-03</internalNodes>
          <leafValues>
            2.2793948650360107e-01 -9.1973692178726196e-01</leafValues></_></weakClassifiers></_>
    <!-- stage 5 -->
    <_>
      <maxWeakCount>6</maxWeakCount>
      <stageThreshold>-2.7324336767196655e-01</stageThreshold>
      <weakClassifiers>
        <_>
          <internalNodes>
            0 -1 9 5.3095009177923203e-02</internalNodes>
          <leafValues>
            -1.7763157188892365e-01 7.5202155113220215e-01</leafValues></_>
        <_>
          <internalNodes>
            0 -1 47 -3.2137587666511536e-02</internalNodes>
          <leafValues>
            7.7868336439132690e-01 -2.5781643390655518e-01</leafValues></_>
        <_>
          <internalNodes>
            0 -1 15 -1.4007522258907557e-03</internalNodes>
          <leafValues>
            3.1412994861602783e-01 -7.2607845067977905e-01</leafValues></_>
        <_>
          <internalNodes>
            0 -1 7 -4.1781283915042877e-02</internalNodes>
          <leafValues>
            5.9180670976638794e-01 -3.6203089356422424e-01</leafValues></_>
        <_>
          <internalNodes>
            0 -1 23 4.7330142115242779e-04</internalNodes>
          <leafValues>
            2.1493090689182281e-01 -8.8228642940521240e-01</leafValues></_>
        <_>
          <internalNodes>
            0 -1 21 2.0961262634955347e-04</internalNodes>
          <leafValues>
            1.6273885965347290e-01 -8.6346518993377686e-01</leafValues></_></weakClassifiers></_>
    <!-- stage 6 -->
    <_>
      <maxWeakCount>8</maxWeakCount>
      <stageThreshold>-9.1162270307540894e-01</stageThreshold>
      <weakClassifiers>
        <_>
          <internalNodes>
            0 -1 11 -5.1092961803078651e-03</internalNodes>
          <leafValues>
            -8.3625733852386475e-01 5.0296860933303833e-01</leafValues></_>
        <_>
          <internalNodes>
            0 -1 46 1.4415271580219269e-03</internalNodes>
          <leafValues>
            -5.0904619693756104e-01 4.5473638176918030e-01</leafValues></_>
        <_>
          <internalNodes>
            0 -1 43 -5.5021904408931732e-02</internalNodes>
          <leafValues>
            5.6342899799346924e-01 -4.0791845321655273e-01</leafValues></_>
        <_>
          <internalNodes>
            0 -1 5 -2.5789402425289154e-02</internalNodes>
          <leafValues>
            2.5301066040992737e-01 -8.1367492675781250e-01</leafValues></_>
        <_>
          <internalNodes>
            0 -1 41 4.4014956802129745e-03</internalNodes>
          <leafValues>
            -5.3703820705413818e-01 3.4559190273284912e-01</leafValues></_>
        <_>
          <internalNodes>
            0 -1 6 1.3408653438091278e-02</internalNodes>
          <leafValues>
            2.4413162469863892e-01 -6.8997883796691895e-01</leafValues></_>
        <_>
          <internalNodes>
            0 -1 4 3.6901049315929413e-03</internalNodes>
          <leafValues>
            -5.7464665174484253e-01 3.1873521208763123e-01</leafValues></_>
        <_>
          <internalNodes>
            0 -1 35 -6.6063050180673599e-03</internalNodes>
          <leafValues>
            3.0097135901451111e-01 -6.2141907215118408e-01</leafValues></_></weakClassifiers></_>
    <!-- stage 7 -->
    <_>
      <maxWeakCount>9</maxWeakCount>
      <stageThreshold>-7.6101964712142944e-01</stageThreshold>
      <weakClassifiers>
        <_>
          <internalNodes>
            0 -1 19 -4.6308457851409912e-02</internalNodes>
          <leafValues>
            -7.1028035879135132e-01 5.2992957830429077e-01</leafValues></_>
        <_>
          <internalNodes>
            0 -1 24 5.3535588085651398e-03</internalNodes>
          <leafValues>
            3.4721678495407104e-01 -7.9324048757553101e-01</leafValues></_>
        <_>
          <internalNodes>
            0 -1 30 1.6385659575462341e-02</internalNodes>
          <leafValues>
            -3.0163475871086121e-01 6.3476163148880005e-01</leafValues></_>
        <_>
          <internalNodes>
            0 -1 39 -2.1070041693747044e-03</internalNodes>
          <leafValues>
            2.9264578223228455e-01 -6.8978828191757202e-01</leafValues></_>
        <_>
          <internalNodes>
            0 -1 34 -1.1158394627273083e-02</internalNodes>
          <leafValues>
            -8.8966572284698486e-01 1.6374741494655609e-01</leafValues></_>
        <_>
          <internalNodes>
            0 -1 29 -3.9477117359638214e-02</internalNodes>
          <leafValues>
            5.9729713201522827e-01 -2.9296493530273438e-01</leafValues></_>
        <_>
          <internalNodes>
            0 -1 42 -8.7453871965408325e-03</internalNodes>
          <leafValues>
            -9.5350229740142822e-01 1.4433899521827698e-01</leafValues></_>
        <_>
          <internalNodes>
            0 -1 27 -4.7137559158727527e-04</internalNodes>
          <leafValues>
            2.7400502562522888e-01 -5.0907099246978760e-01</leafValues></_>
        <_>
          <internalNodes>
            0 -1 22 -9.3389564426615834e-05</internalNodes>
          <leafValues>
            -6.5958815813064575e-01 2.0458784699440002e-01</leafValues></_></weakClassifiers></_></stages>
  <features>
    <_>
      <rects>
        <_>
          0 3 6 12 -1.</_>
        <_>
          3 3 3 12 2.</_></rects>
      <tilted>0</tilted></_>
    <_>
      <rects>
        <_>
          0 4 4 7 -1.</_>
        <_>
          2 4 2 7 2.</_></rects>
      <tilted>0</tilted></_>
    <_>
      <rects>
        <_>
          0 5 4 11 -1.</_>
        <_>
          2 5 2 11 2.</_></rects>
      <tilted>0</tilted></_>
    <_>
      <rects>
        <_>
          3 5 15 12 -1.</_>
        <_>
          3 9 15 4 3.</_></rects>
      <tilted>0</tilted></_>
    <_>
      <rects>
        <_>
          3 17 15 1 -1.</_>
        <_>
          8 17 5 1 3.</_></rects>
      <tilted>0</tilted></_>
    <_>
      <rects>
        <_>
          4 5 14 10 -1.</_>
        <_>
          11 5 7 10 2.</_></rects>
      <tilted>0</tilted></_>
    <_>
      <rects>
        <_>
          4 6 6 9 -1.</_>
        <_>
          7 6 3 9 2.</_></rects>
      <tilted>0</tilted></_>
    <_>
      <rects>
        <_>
          4 16 11 4 -1.</_>
        <_>
          4 18 11 2 2.</_></rects>
      <tilted>0</tilted></_>
    <_>
      <rects>
        <_>
          5 0 6 4 -1.</_>
        <_>
          5 2 6 2 2.</_></rects>
      <tilted>0</tilted></_>
    <_>
      <rects>
        <_>
          5 0 13 6 -1.</_>
        <_>
          5 3 13 3 2.</_></rects>
      <tilted>0</tilted></_>
    <_>
      <rects>
        <_>
          5 5 10 4 -1.</_>
        <_>
          10 5 5 4 2.</_></rects>
      <tilted>0</tilted></_>
    <_>
      <rects>
        <_>
          5 9 4 4 -1.</_>
        <_>
          7 9 2 4 2.</_></rects>
      <tilted>0</tilted></_>
    <_>
      <rects>
        <_>
          5 16 10 4 -1.</_>
        <_>
          5 18 10 2 2.</_></rects>
      <tilted>0</tilted></_>
    <_>
      <rects>
        <_>
          6 4 10 8 -1.</_>
        <_>
          11 4 5 8 2.</_></rects>
      <tilted>0</tilted></_>
    <_>
      <rects>
        <_>
          6 9 8 5 -1.</_>
        <_>
          10 9 4 5 2.</_></rects>
      <tilted>0</tilted></_>
    <_>
      <rects>
        <_>
          6 10 4 6 -1.</_>
        <_>
          6 13 4 3 2.</_></rects>
      <tilted>0</tilted></_>
    <_>
      <rects>
        <_>
          6 18 9 2 -1.</_>
        <_>
          6 19 9 1 2.</_></rects>
      <tilted>0</tilted></_>
    <_>
      <rects>
        <_>
          7 0 8 4 -1.</_>
        <_>
          7 2 8 2 2.</_></rects>
      <tilted>0</tilted></_>
    <_>
      <rects>
        <_>
          7 3 4 12 -1.</_>
        <_>
          7 9 4 6 2.</_></rects>
      <tilted>0</tilted></_>
    <_>
      <rects>
        <_>
          7 3 9 14 -1.</_>
        <_>
          7 10 9 7 2.</_></rects>
      <tilted>0</tilted></_>
    <_>
      <rects>
        <_>
          7 6 8 3 -1.</_>
        <_>
          11 6 4 3 2.</_></rects>
      <tilted>0</tilted></_>
    <_>
      <rects>
        <_>
          7 14 6 2 -1.</_>
        <_>
          10 14 3 2 2.</_></rects>
      <tilted>0</tilted></_>
    <_>
      <rects>
        <_>
          8 3 1 12 -1.</_>
        <_>
          8 9 1 6 2.</_></rects>
      <tilted>0</tilted></_>
    <_>
      <rects>
        <_>
          8 4 5 4 -1.</_>
        <_>
          8 6 5 2 2.</_></rects>
      <tilted>0</tilted></_>
    <_>
      <rects>
        <_>
          8 4 8 14 -1.</_>
        <_>
          8 11 8 7 2.</_></rects>
      <tilted>0</tilted></_>
    <_>
      <rects>
        <_>
          8 5 7 14 -1.</_>
        <_>
          8 12 7 7 2.</_></rects>
      <tilted>0</tilted></_>
    <_>
      <rects>
        <_>
          8 10 7 6 -1.</_>
        <_>
          8 13 7 3 2.</_></rects>
      <tilted>0</tilted></_>
    <_>
      <rects>
        <_>
          8 11 1 6 -1.</_>
        <_>
          8 13 1 2 3.</_></rects>
      <tilted>0</tilted></_>
    <_>
      <rects>
        <_>
          8 16 5 4 -1.</_>
        <_>
          8 18 5 2 2.</_></rects>
      <tilted>0</tilted></_>
    <_>
      <rects>
        <_>
          8 16 8 4 -1.</_>
        <_>
          8 18 8 2 2.</_></rects>
      <tilted>0</tilted></_>
    <_>
      <rects>
        <_>
          9 0 2 4 -1.</_>
        <_>
          9 2 2 2 2.</_></rects>
      <tilted>0</tilted></_>
    <_>
      <rects>
        <_>
          9 0 6 9 -1.</_>
        <_>
          9 3 6 3 3.</_></rects>
      <tilted>0</tilted></_>
    <_>
      <rects>
        <_>
          9 7 6 7 -1.</_>
        <_>
          11 7 2 7 3.</_></rects>
      <tilted>0</tilted></_>
    <_>
      <rects>
        <_>
          10 3 2 6 -1.</_>
        <_>
          10 6 2 3 2.</_></rects>
      <tilted>0</tilted></_>
    <_>
      <rects>
        <_>
          10 6 2 8 -1.</_>
        <_>
          11 6 1 8 2.</_></rects>
      <tilted>0</tilted></_>
    <_>
      <rects>
        <_>
          10 7 6 7 -1.</_>
        <_>
          12 7 2 7 3.</_></rects>
      <tilted>0</tilted></_>
    <_>
      <rects>
        <_>
          10 9 3 6 -1.</_>
        <_>
          10 11 3 2 3.</_></rects>
      <tilted>0</tilted></_>
    <_>
      <rects>
        <_>
          10 9 5 8 -1.</_>
        <_>
          10 13 5 4 2.</_></rects>
      <tilted>0</tilted></_>
    <_>
      <rects>
        <_>
          11 4 1 6 -1.</_>
        <_>
          11 7 1 3 2.</_></rects>
      <tilted>0</tilted></_>
    <_>
      <rects>
        <_>
          11 4 1 12 -1.</_>
        <_>
          11 8 1 4 3.</_></rects>
      <tilted>0</tilted></_>
    <_>
      <rects>
        <_>
          11 5 1 6 -1.</_>
        <_>
          11 8 1 3 2.</_></rects>
      <tilted>0</tilted></_>
    <_>
      <rects>
        <_>
          12 1 3 4 -1.</_>
        <_>
          12 3 3 2 2.</_></rects>
      <tilted>0</tilted></_>
    <_>
      <rects>
        <_>
          12 3 1 6 -1.</_>
        <_>
          12 6 1 3 2.</_></rects>
      <tilted>0</tilted></_>
    <_>
      <rects>
        <_>
          14 4 6 14 -1.</_>
        <_>
          17 4 3 14 2.</_></rects>
      <tilted>0</tilted></_>
    <_>
      <rects>
        <_>
          14 7 2 6 -1.</_>
        <_>
          15 7 1 6 2.</_></rects>
      <tilted>0</tilted></_>
    <_>
      <rects>
        <_>
          14 7 6 5 -1.</_>
        <_>
          16 7 2 5 3.</_></rects>
      <tilted>0</tilted></_>
    <_>
      <rects>
        <_>
          15 8 2 3 -1.</_>
        <_>
          16 8 1 3 2.</_></rects>
      <tilted>0</tilted></_>
    <_>
      <rects>
        <_>
          16 8 4 7 -1.</_>
        <_>
          18 8 2 7 2.</_></rects>
      <tilted>0</tilted></_></features></cascade>
</opencv_storage>
