<?xml version="1.0"?>
<opencv_storage>
<stage3>
  <maxWeakCount>5</maxWeakCount>
  <stageThreshold>-5.3110665082931519e-01</stageThreshold>
  <weakClassifiers>
    <_>
      <internalNodes>
        0 -1 52269 2.0795518532395363e-02</internalNodes>
      <leafValues>
        6.0547947883605957e-01 -8.3529412746429443e-01</leafValues></_>
    <_>
      <internalNodes>
        0 -1 2265 7.2258517146110535e-02</internalNodes>
      <leafValues>
        -4.0828377008438110e-01 6.2618684768676758e-01</leafValues></_>
    <_>
      <internalNodes>
        0 -1 61325 -4.2357454076409340e-03</internalNodes>
      <leafValues>
        -8.7575262784957886e-01 2.8523510694503784e-01</leafValues></_>
    <_>
      <internalNodes>
        0 -1 72560 1.0785080958157778e-03</internalNodes>
      <leafValues>
        -6.9098848104476929e-01 2.9948920011520386e-01</leafValues></_>
    <_>
      <internalNodes>
        0 -1 47743 -1.8283251672983170e-02</internalNodes>
      <leafValues>
        -9.0672367811203003e-01 2.1937258541584015e-01</leafValues></_></weakClassifiers></stage3>
</opencv_storage>
