<?xml version="1.0"?>
<opencv_storage>
<cascade>
  <stageType>BOOST</stageType>
  <featureType>HAAR</featureType>
  <height>30</height>
  <width>30</width>
  <stageParams>
    <boostType>GAB</boostType>
    <minHitRate>9.9500000476837158e-01</minHitRate>
    <maxFalseAlarm>5.0000000000000000e-01</maxFalseAlarm>
    <weightTrimRate>9.4999999999999996e-01</weightTrimRate>
    <maxDepth>1</maxDepth>
    <maxWeakCount>100</maxWeakCount></stageParams>
  <featureParams>
    <maxCatCount>0</maxCatCount>
    <featSize>1</featSize>
    <mode>BASIC</mode></featureParams>
  <stageNum>10</stageNum>
  <stages>
    <!-- stage 0 -->
    <_>
      <maxWeakCount>4</maxWeakCount>
      <stageThreshold>-4.6668457984924316e-01</stageThreshold>
      <weakClassifiers>
        <_>
          <internalNodes>
            0 -1 30 -4.9674669280648232e-03</internalNodes>
          <leafValues>
            6.8863421678543091e-01 -8.9438945055007935e-01</leafValues></_>
        <_>
          <internalNodes>
            0 -1 36 -4.8599187284708023e-03</internalNodes>
          <leafValues>
            4.5303750038146973e-01 -9.4832170009613037e-01</leafValues></_>
        <_>
          <internalNodes>
            0 -1 15 1.9530098885297775e-02</internalNodes>
          <leafValues>
            -5.0413078069686890e-01 7.5234466791152954e-01</leafValues></_>
        <_>
          <internalNodes>
            0 -1 14 -2.9453993774950504e-03</internalNodes>
          <leafValues>
            4.7879812121391296e-01 -8.2777374982833862e-01</leafValues></_></weakClassifiers></_>
    <!-- stage 1 -->
    <_>
      <maxWeakCount>5</maxWeakCount>
      <stageThreshold>-8.9794617891311646e-01</stageThreshold>
      <weakClassifiers>
        <_>
          <internalNodes>
            0 -1 27 -4.5186486095190048e-03</internalNodes>
          <leafValues>
            -8.7387388944625854e-01 5.7092195749282837e-01</leafValues></_>
        <_>
          <internalNodes>
            0 -1 4 -1.2680910527706146e-02</internalNodes>
          <leafValues>
            7.7105247974395752e-01 -3.8633406162261963e-01</leafValues></_>
        <_>
          <internalNodes>
            0 -1 33 -1.7694844864308834e-03</internalNodes>
          <leafValues>
            3.8335910439491272e-01 -7.9693412780761719e-01</leafValues></_>
        <_>
          <internalNodes>
            0 -1 28 1.5262764645740390e-04</internalNodes>
          <leafValues>
            -8.9008390903472900e-01 3.4514096379280090e-01</leafValues></_>
        <_>
          <internalNodes>
            0 -1 7 1.8109519034624100e-02</internalNodes>
          <leafValues>
            -5.1719826459884644e-01 6.0448396205902100e-01</leafValues></_></weakClassifiers></_>
    <!-- stage 2 -->
    <_>
      <maxWeakCount>4</maxWeakCount>
      <stageThreshold>-5.7630610466003418e-01</stageThreshold>
      <weakClassifiers>
        <_>
          <internalNodes>
            0 -1 39 -7.2190221399068832e-03</internalNodes>
          <leafValues>
            5.6544500589370728e-01 -9.7058820724487305e-01</leafValues></_>
        <_>
          <internalNodes>
            0 -1 11 -3.3800718374550343e-03</internalNodes>
          <leafValues>
            5.2389627695083618e-01 -6.4319485425949097e-01</leafValues></_>
        <_>
          <internalNodes>
            0 -1 50 -1.8531505018472672e-02</internalNodes>
          <leafValues>
            -8.5989254713058472e-01 4.1501539945602417e-01</leafValues></_>
        <_>
          <internalNodes>
            0 -1 6 -1.8828775733709335e-02</internalNodes>
          <leafValues>
            4.7569850087165833e-01 -5.4462951421737671e-01</leafValues></_></weakClassifiers></_>
    <!-- stage 3 -->
    <_>
      <maxWeakCount>6</maxWeakCount>
      <stageThreshold>-5.4314804077148438e-01</stageThreshold>
      <weakClassifiers>
        <_>
          <internalNodes>
            0 -1 5 6.7234353628009558e-04</internalNodes>
          <leafValues>
            -6.7247384786605835e-01 6.0489183664321899e-01</leafValues></_>
        <_>
          <internalNodes>
            0 -1 51 -6.2114145839586854e-04</internalNodes>
          <leafValues>
            3.4027439355850220e-01 -8.7175130844116211e-01</leafValues></_>
        <_>
          <internalNodes>
            0 -1 1 3.3472932875156403e-02</internalNodes>
          <leafValues>
            -4.0550181269645691e-01 7.3454016447067261e-01</leafValues></_>
        <_>
          <internalNodes>
            0 -1 38 -1.8494583666324615e-02</internalNodes>
          <leafValues>
            -9.4459199905395508e-01 2.7963232994079590e-01</leafValues></_>
        <_>
          <internalNodes>
            0 -1 49 3.2380828633904457e-03</internalNodes>
          <leafValues>
            -5.0840103626251221e-01 5.3069627285003662e-01</leafValues></_>
        <_>
          <internalNodes>
            0 -1 23 -2.0510605536401272e-03</internalNodes>
          <leafValues>
            4.2332193255424500e-01 -5.8784496784210205e-01</leafValues></_></weakClassifiers></_>
    <!-- stage 4 -->
    <_>
      <maxWeakCount>6</maxWeakCount>
      <stageThreshold>-7.1545052528381348e-01</stageThreshold>
      <weakClassifiers>
        <_>
          <internalNodes>
            0 -1 25 9.1067678295075893e-04</internalNodes>
          <leafValues>
            5.8658206462860107e-01 -7.9757082462310791e-01</leafValues></_>
        <_>
          <internalNodes>
            0 -1 32 1.0668905451893806e-02</internalNodes>
          <leafValues>
            -3.5711669921875000e-01 8.3910024166107178e-01</leafValues></_>
        <_>
          <internalNodes>
            0 -1 48 -1.5332025941461325e-03</internalNodes>
          <leafValues>
            -9.5715177059173584e-01 3.4682646393775940e-01</leafValues></_>
        <_>
          <internalNodes>
            0 -1 20 8.1007853150367737e-03</internalNodes>
          <leafValues>
            2.1568927168846130e-01 -9.5632249116897583e-01</leafValues></_>
        <_>
          <internalNodes>
            0 -1 2 3.9769507944583893e-02</internalNodes>
          <leafValues>
            -3.9719012379646301e-01 6.8182927370071411e-01</leafValues></_>
        <_>
          <internalNodes>
            0 -1 21 -1.6831741668283939e-03</internalNodes>
          <leafValues>
            2.7391144633293152e-01 -8.0642533302307129e-01</leafValues></_></weakClassifiers></_>
    <!-- stage 5 -->
    <_>
      <maxWeakCount>4</maxWeakCount>
      <stageThreshold>-1.0139117389917374e-01</stageThreshold>
      <weakClassifiers>
        <_>
          <internalNodes>
            0 -1 18 -3.0283162370324135e-02</internalNodes>
          <leafValues>
            -8.6046510934829712e-01 5.5947136878967285e-01</leafValues></_>
        <_>
          <internalNodes>
            0 -1 19 -1.2938559055328369e-02</internalNodes>
          <leafValues>
            2.7802494168281555e-01 -9.5907253026962280e-01</leafValues></_>
        <_>
          <internalNodes>
            0 -1 26 -8.9626945555210114e-03</internalNodes>
          <leafValues>
            -8.9769250154495239e-01 2.5832864642143250e-01</leafValues></_>
        <_>
          <internalNodes>
            0 -1 37 -1.1541942134499550e-02</internalNodes>
          <leafValues>
            -8.1539481878280640e-01 2.2272038459777832e-01</leafValues></_></weakClassifiers></_>
    <!-- stage 6 -->
    <_>
      <maxWeakCount>6</maxWeakCount>
      <stageThreshold>-7.4184775352478027e-01</stageThreshold>
      <weakClassifiers>
        <_>
          <internalNodes>
            0 -1 8 -4.2277224361896515e-02</internalNodes>
          <leafValues>
            -8.6238533258438110e-01 5.6360423564910889e-01</leafValues></_>
        <_>
          <internalNodes>
            0 -1 10 -6.9533567875623703e-04</internalNodes>
          <leafValues>
            3.8618478178977966e-01 -6.4670896530151367e-01</leafValues></_>
        <_>
          <internalNodes>
            0 -1 12 3.5871956497430801e-02</internalNodes>
          <leafValues>
            -2.9466199874877930e-01 7.7007251977920532e-01</leafValues></_>
        <_>
          <internalNodes>
            0 -1 22 -5.3023048676550388e-03</internalNodes>
          <leafValues>
            3.3971694111824036e-01 -7.6417481899261475e-01</leafValues></_>
        <_>
          <internalNodes>
            0 -1 47 -2.8881900943815708e-03</internalNodes>
          <leafValues>
            1.7859624326229095e-01 -8.9092290401458740e-01</leafValues></_>
        <_>
          <internalNodes>
            0 -1 42 -4.6041175723075867e-02</internalNodes>
          <leafValues>
            -9.3946468830108643e-01 2.2149752080440521e-01</leafValues></_></weakClassifiers></_>
    <!-- stage 7 -->
    <_>
      <maxWeakCount>5</maxWeakCount>
      <stageThreshold>-2.4321597814559937e-01</stageThreshold>
      <weakClassifiers>
        <_>
          <internalNodes>
            0 -1 44 -1.6778953140601516e-03</internalNodes>
          <leafValues>
            5.5555558204650879e-01 -7.7777779102325439e-01</leafValues></_>
        <_>
          <internalNodes>
            0 -1 52 1.6755256801843643e-03</internalNodes>
          <leafValues>
            3.1177380681037903e-01 -8.0162554979324341e-01</leafValues></_>
        <_>
          <internalNodes>
            0 -1 3 2.8119115158915520e-02</internalNodes>
          <leafValues>
            -3.2837313413619995e-01 7.4932193756103516e-01</leafValues></_>
        <_>
          <internalNodes>
            0 -1 45 -1.6266810707747936e-03</internalNodes>
          <leafValues>
            -9.1932410001754761e-01 2.6343205571174622e-01</leafValues></_>
        <_>
          <internalNodes>
            0 -1 17 1.8097206484526396e-03</internalNodes>
          <leafValues>
            -6.5880227088928223e-01 2.8772908449172974e-01</leafValues></_></weakClassifiers></_>
    <!-- stage 8 -->
    <_>
      <maxWeakCount>7</maxWeakCount>
      <stageThreshold>-6.7722934484481812e-01</stageThreshold>
      <weakClassifiers>
        <_>
          <internalNodes>
            0 -1 54 4.7168269520625472e-04</internalNodes>
          <leafValues>
            -4.4117647409439087e-01 5.9405940771102905e-01</leafValues></_>
        <_>
          <internalNodes>
            0 -1 29 5.6026978418231010e-03</internalNodes>
          <leafValues>
            3.0042624473571777e-01 -8.4384506940841675e-01</leafValues></_>
        <_>
          <internalNodes>
            0 -1 24 -1.5713043510913849e-02</internalNodes>
          <leafValues>
            6.6943687200546265e-01 -3.3350238204002380e-01</leafValues></_>
        <_>
          <internalNodes>
            0 -1 31 2.4343978147953749e-03</internalNodes>
          <leafValues>
            -5.7176542282104492e-01 3.4269931912422180e-01</leafValues></_>
        <_>
          <internalNodes>
            0 -1 40 -4.2507142643444240e-04</internalNodes>
          <leafValues>
            1.7841611802577972e-01 -9.8226433992385864e-01</leafValues></_>
        <_>
          <internalNodes>
            0 -1 55 1.4475549571216106e-02</internalNodes>
          <leafValues>
            -2.9805892705917358e-01 6.9450050592422485e-01</leafValues></_>
        <_>
          <internalNodes>
            0 -1 0 8.1113658845424652e-02</internalNodes>
          <leafValues>
            -3.1699779629707336e-01 5.9746807813644409e-01</leafValues></_></weakClassifiers></_>
    <!-- stage 9 -->
    <_>
      <maxWeakCount>9</maxWeakCount>
      <stageThreshold>-7.0442116260528564e-01</stageThreshold>
      <weakClassifiers>
        <_>
          <internalNodes>
            0 -1 34 -4.2715393006801605e-02</internalNodes>
          <leafValues>
            -8.6826348304748535e-01 5.0295859575271606e-01</leafValues></_>
        <_>
          <internalNodes>
            0 -1 35 -3.2679075375199318e-03</internalNodes>
          <leafValues>
            3.2781699299812317e-01 -6.1591929197311401e-01</leafValues></_>
        <_>
          <internalNodes>
            0 -1 13 4.2945094406604767e-02</internalNodes>
          <leafValues>
            -3.5139396786689758e-01 6.0287481546401978e-01</leafValues></_>
        <_>
          <internalNodes>
            0 -1 16 -2.4059638963080943e-04</internalNodes>
          <leafValues>
            3.6640998721122742e-01 -5.3980457782745361e-01</leafValues></_>
        <_>
          <internalNodes>
            0 -1 46 -9.5964670181274414e-03</internalNodes>
          <leafValues>
            -9.3959343433380127e-01 1.9841921329498291e-01</leafValues></_>
        <_>
          <internalNodes>
            0 -1 41 -5.3852464770898223e-04</internalNodes>
          <leafValues>
            1.8128159642219543e-01 -7.4702113866806030e-01</leafValues></_>
        <_>
          <internalNodes>
            0 -1 9 -1.6467010602355003e-02</internalNodes>
          <leafValues>
            -8.1587004661560059e-01 2.0235647261142731e-01</leafValues></_>
        <_>
          <internalNodes>
            0 -1 53 -2.0754230208694935e-03</internalNodes>
          <leafValues>
            -8.2948178052902222e-01 1.6876865923404694e-01</leafValues></_>
        <_>
          <internalNodes>
            0 -1 43 -3.9516270160675049e-02</internalNodes>
          <leafValues>
            -9.2981660366058350e-01 1.5323258936405182e-01</leafValues></_></weakClassifiers></_></stages>
  <features>
    <_>
      <rects>
        <_>
          0 2 12 19 -1.</_>
        <_>
          6 2 6 19 2.</_></rects>
      <tilted>0</tilted></_>
    <_>
      <rects>
        <_>
          0 6 6 14 -1.</_>
        <_>
          3 6 3 14 2.</_></rects>
      <tilted>0</tilted></_>
    <_>
      <rects>
        <_>
          0 9 6 13 -1.</_>
        <_>
          3 9 3 13 2.</_></rects>
      <tilted>0</tilted></_>
    <_>
      <rects>
        <_>
          0 12 6 7 -1.</_>
        <_>
          3 12 3 7 2.</_></rects>
      <tilted>0</tilted></_>
    <_>
      <rects>
        <_>
          1 26 20 4 -1.</_>
        <_>
          1 28 20 2 2.</_></rects>
      <tilted>0</tilted></_>
    <_>
      <rects>
        <_>
          4 7 15 18 -1.</_>
        <_>
          4 13 15 6 3.</_></rects>
      <tilted>0</tilted></_>
    <_>
      <rects>
        <_>
          4 20 9 10 -1.</_>
        <_>
          4 25 9 5 2.</_></rects>
      <tilted>0</tilted></_>
    <_>
      <rects>
        <_>
          5 0 13 6 -1.</_>
        <_>
          5 3 13 3 2.</_></rects>
      <tilted>0</tilted></_>
    <_>
      <rects>
        <_>
          5 6 18 16 -1.</_>
        <_>
          11 6 6 16 3.</_></rects>
      <tilted>0</tilted></_>
    <_>
      <rects>
        <_>
          6 6 10 6 -1.</_>
        <_>
          6 9 10 3 2.</_></rects>
      <tilted>0</tilted></_>
    <_>
      <rects>
        <_>
          6 8 6 6 -1.</_>
        <_>
          9 8 3 6 2.</_></rects>
      <tilted>0</tilted></_>
    <_>
      <rects>
        <_>
          6 13 4 8 -1.</_>
        <_>
          8 13 2 8 2.</_></rects>
      <tilted>0</tilted></_>
    <_>
      <rects>
        <_>
          7 0 11 6 -1.</_>
        <_>
          7 3 11 3 2.</_></rects>
      <tilted>0</tilted></_>
    <_>
      <rects>
        <_>
          7 0 15 8 -1.</_>
        <_>
          7 4 15 4 2.</_></rects>
      <tilted>0</tilted></_>
    <_>
      <rects>
        <_>
          7 8 10 4 -1.</_>
        <_>
          12 8 5 4 2.</_></rects>
      <tilted>0</tilted></_>
    <_>
      <rects>
        <_>
          8 0 13 6 -1.</_>
        <_>
          8 3 13 3 2.</_></rects>
      <tilted>0</tilted></_>
    <_>
      <rects>
        <_>
          8 7 2 4 -1.</_>
        <_>
          9 7 1 4 2.</_></rects>
      <tilted>0</tilted></_>
    <_>
      <rects>
        <_>
          8 7 6 10 -1.</_>
        <_>
          8 7 3 5 2.</_>
        <_>
          11 12 3 5 2.</_></rects>
      <tilted>0</tilted></_>
    <_>
      <rects>
        <_>
          9 5 8 16 -1.</_>
        <_>
          13 5 4 16 2.</_></rects>
      <tilted>0</tilted></_>
    <_>
      <rects>
        <_>
          9 5 12 14 -1.</_>
        <_>
          15 5 6 14 2.</_></rects>
      <tilted>0</tilted></_>
    <_>
      <rects>
        <_>
          9 5 13 14 -1.</_>
        <_>
          9 12 13 7 2.</_></rects>
      <tilted>0</tilted></_>
    <_>
      <rects>
        <_>
          9 7 8 4 -1.</_>
        <_>
          13 7 4 4 2.</_></rects>
      <tilted>0</tilted></_>
    <_>
      <rects>
        <_>
          9 8 10 6 -1.</_>
        <_>
          14 8 5 6 2.</_></rects>
      <tilted>0</tilted></_>
    <_>
      <rects>
        <_>
          9 23 4 6 -1.</_>
        <_>
          9 26 4 3 2.</_></rects>
      <tilted>0</tilted></_>
    <_>
      <rects>
        <_>
          9 26 17 4 -1.</_>
        <_>
          9 28 17 2 2.</_></rects>
      <tilted>0</tilted></_>
    <_>
      <rects>
        <_>
          10 7 12 9 -1.</_>
        <_>
          10 10 12 3 3.</_></rects>
      <tilted>0</tilted></_>
    <_>
      <rects>
        <_>
          10 8 14 2 -1.</_>
        <_>
          17 8 7 2 2.</_></rects>
      <tilted>0</tilted></_>
    <_>
      <rects>
        <_>
          10 19 8 6 -1.</_>
        <_>
          10 22 8 3 2.</_></rects>
      <tilted>0</tilted></_>
    <_>
      <rects>
        <_>
          11 5 6 21 -1.</_>
        <_>
          11 12 6 7 3.</_></rects>
      <tilted>0</tilted></_>
    <_>
      <rects>
        <_>
          11 6 14 4 -1.</_>
        <_>
          18 6 7 4 2.</_></rects>
      <tilted>0</tilted></_>
    <_>
      <rects>
        <_>
          11 10 10 9 -1.</_>
        <_>
          16 10 5 9 2.</_></rects>
      <tilted>0</tilted></_>
    <_>
      <rects>
        <_>
          11 10 7 6 -1.</_>
        <_>
          11 13 7 3 2.</_></rects>
      <tilted>0</tilted></_>
    <_>
      <rects>
        <_>
          12 1 8 4 -1.</_>
        <_>
          12 3 8 2 2.</_></rects>
      <tilted>0</tilted></_>
    <_>
      <rects>
        <_>
          12 5 7 6 -1.</_>
        <_>
          12 8 7 3 2.</_></rects>
      <tilted>0</tilted></_>
    <_>
      <rects>
        <_>
          12 6 13 14 -1.</_>
        <_>
          12 13 13 7 2.</_></rects>
      <tilted>0</tilted></_>
    <_>
      <rects>
        <_>
          12 10 12 6 -1.</_>
        <_>
          12 10 6 3 2.</_>
        <_>
          18 13 6 3 2.</_></rects>
      <tilted>0</tilted></_>
    <_>
      <rects>
        <_>
          12 13 8 10 -1.</_>
        <_>
          12 18 8 5 2.</_></rects>
      <tilted>0</tilted></_>
    <_>
      <rects>
        <_>
          12 18 8 9 -1.</_>
        <_>
          16 18 4 9 2.</_></rects>
      <tilted>0</tilted></_>
    <_>
      <rects>
        <_>
          13 3 7 21 -1.</_>
        <_>
          13 10 7 7 3.</_></rects>
      <tilted>0</tilted></_>
    <_>
      <rects>
        <_>
          13 5 7 20 -1.</_>
        <_>
          13 15 7 10 2.</_></rects>
      <tilted>0</tilted></_>
    <_>
      <rects>
        <_>
          13 5 8 16 -1.</_>
        <_>
          13 13 8 8 2.</_></rects>
      <tilted>0</tilted></_>
    <_>
      <rects>
        <_>
          14 4 4 6 -1.</_>
        <_>
          14 7 4 3 2.</_></rects>
      <tilted>0</tilted></_>
    <_>
      <rects>
        <_>
          14 4 5 22 -1.</_>
        <_>
          14 15 5 11 2.</_></rects>
      <tilted>0</tilted></_>
    <_>
      <rects>
        <_>
          14 5 9 16 -1.</_>
        <_>
          17 5 3 16 3.</_></rects>
      <tilted>0</tilted></_>
    <_>
      <rects>
        <_>
          14 13 9 10 -1.</_>
        <_>
          17 13 3 10 3.</_></rects>
      <tilted>0</tilted></_>
    <_>
      <rects>
        <_>
          14 18 7 3 -1.</_>
        <_>
          14 19 7 1 3.</_></rects>
      <tilted>0</tilted></_>
    <_>
      <rects>
        <_>
          15 17 9 3 -1.</_>
        <_>
          18 17 3 3 3.</_></rects>
      <tilted>0</tilted></_>
    <_>
      <rects>
        <_>
          16 4 2 22 -1.</_>
        <_>
          16 15 2 11 2.</_></rects>
      <tilted>0</tilted></_>
    <_>
      <rects>
        <_>
          16 18 3 4 -1.</_>
        <_>
          16 20 3 2 2.</_></rects>
      <tilted>0</tilted></_>
    <_>
      <rects>
        <_>
          16 23 8 4 -1.</_>
        <_>
          16 25 8 2 2.</_></rects>
      <tilted>0</tilted></_>
    <_>
      <rects>
        <_>
          17 9 6 14 -1.</_>
        <_>
          17 16 6 7 2.</_></rects>
      <tilted>0</tilted></_>
    <_>
      <rects>
        <_>
          18 5 2 10 -1.</_>
        <_>
          18 10 2 5 2.</_></rects>
      <tilted>0</tilted></_>
    <_>
      <rects>
        <_>
          18 10 4 14 -1.</_>
        <_>
          18 17 4 7 2.</_></rects>
      <tilted>0</tilted></_>
    <_>
      <rects>
        <_>
          18 13 4 11 -1.</_>
        <_>
          20 13 2 11 2.</_></rects>
      <tilted>0</tilted></_>
    <_>
      <rects>
        <_>
          21 11 4 6 -1.</_>
        <_>
          23 11 2 6 2.</_></rects>
      <tilted>0</tilted></_>
    <_>
      <rects>
        <_>
          24 16 6 8 -1.</_>
        <_>
          26 16 2 8 3.</_></rects>
      <tilted>0</tilted></_></features></cascade>
</opencv_storage>
