<?xml version="1.0"?>
<opencv_storage>
<cascade>
  <stageType>BOOST</stageType>
  <featureType>HAAR</featureType>
  <height>20</height>
  <width>20</width>
  <stageParams>
    <boostType>GAB</boostType>
    <minHitRate>9.9500000476837158e-01</minHitRate>
    <maxFalseAlarm>5.0000000000000000e-01</maxFalseAlarm>
    <weightTrimRate>9.4999999999999996e-01</weightTrimRate>
    <maxDepth>1</maxDepth>
    <maxWeakCount>100</maxWeakCount></stageParams>
  <featureParams>
    <maxCatCount>0</maxCatCount>
    <featSize>1</featSize>
    <mode>BASIC</mode></featureParams>
  <stageNum>10</stageNum>
  <stages>
    <!-- stage 0 -->
    <_>
      <maxWeakCount>4</maxWeakCount>
      <stageThreshold>-5.4078233242034912e-01</stageThreshold>
      <weakClassifiers>
        <_>
          <internalNodes>
            0 -1 43 -5.6899823248386383e-03</internalNodes>
          <leafValues>
            6.9749516248703003e-01 -8.7820512056350708e-01</leafValues></_>
        <_>
          <internalNodes>
            0 -1 28 -1.2195285409688950e-02</internalNodes>
          <leafValues>
            4.9952235817909241e-01 -9.7511935234069824e-01</leafValues></_>
        <_>
          <internalNodes>
            0 -1 47 -7.7565480023622513e-04</internalNodes>
          <leafValues>
            3.6725494265556335e-01 -8.2179003953933716e-01</leafValues></_>
        <_>
          <internalNodes>
            0 -1 8 3.4184217453002930e-02</internalNodes>
          <leafValues>
            -5.1213151216506958e-01 6.5969043970108032e-01</leafValues></_></weakClassifiers></_>
    <!-- stage 1 -->
    <_>
      <maxWeakCount>5</maxWeakCount>
      <stageThreshold>-7.8736943006515503e-01</stageThreshold>
      <weakClassifiers>
        <_>
          <internalNodes>
            0 -1 51 -5.0993375480175018e-03</internalNodes>
          <leafValues>
            5.5982530117034912e-01 -9.3170732259750366e-01</leafValues></_>
        <_>
          <internalNodes>
            0 -1 18 3.0238771811127663e-02</internalNodes>
          <leafValues>
            -4.2127990722656250e-01 7.5025427341461182e-01</leafValues></_>
        <_>
          <internalNodes>
            0 -1 21 -2.2846404463052750e-03</internalNodes>
          <leafValues>
            4.4327992200851440e-01 -8.3261805772781372e-01</leafValues></_>
        <_>
          <internalNodes>
            0 -1 4 -2.4931874126195908e-02</internalNodes>
          <leafValues>
            7.4247467517852783e-01 -3.9792099595069885e-01</leafValues></_>
        <_>
          <internalNodes>
            0 -1 64 -7.7535528689622879e-03</internalNodes>
          <leafValues>
            -9.6814411878585815e-01 3.0462419986724854e-01</leafValues></_></weakClassifiers></_>
    <!-- stage 2 -->
    <_>
      <maxWeakCount>5</maxWeakCount>
      <stageThreshold>-7.8345423936843872e-01</stageThreshold>
      <weakClassifiers>
        <_>
          <internalNodes>
            0 -1 41 -1.3772623613476753e-02</internalNodes>
          <leafValues>
            -8.9380532503128052e-01 5.8007115125656128e-01</leafValues></_>
        <_>
          <internalNodes>
            0 -1 63 -1.4828102430328727e-03</internalNodes>
          <leafValues>
            4.2264872789382935e-01 -8.0647206306457520e-01</leafValues></_>
        <_>
          <internalNodes>
            0 -1 2 3.1717523932456970e-02</internalNodes>
          <leafValues>
            -4.5430055260658264e-01 7.0184212923049927e-01</leafValues></_>
        <_>
          <internalNodes>
            0 -1 37 -8.1152617931365967e-03</internalNodes>
          <leafValues>
            8.0341893434524536e-01 -3.1534063816070557e-01</leafValues></_>
        <_>
          <internalNodes>
            0 -1 57 -7.6493155211210251e-04</internalNodes>
          <leafValues>
            3.5767379403114319e-01 -6.6141605377197266e-01</leafValues></_></weakClassifiers></_>
    <!-- stage 3 -->
    <_>
      <maxWeakCount>7</maxWeakCount>
      <stageThreshold>-1.0077282190322876e+00</stageThreshold>
      <weakClassifiers>
        <_>
          <internalNodes>
            0 -1 40 -6.5676793456077576e-03</internalNodes>
          <leafValues>
            5.8165138959884644e-01 -7.0769232511520386e-01</leafValues></_>
        <_>
          <internalNodes>
            0 -1 13 -2.5238781236112118e-03</internalNodes>
          <leafValues>
            4.8507261276245117e-01 -5.0672459602355957e-01</leafValues></_>
        <_>
          <internalNodes>
            0 -1 34 3.3387660514563322e-03</internalNodes>
          <leafValues>
            -5.1575201749801636e-01 4.6542379260063171e-01</leafValues></_>
        <_>
          <internalNodes>
            0 -1 48 3.2967217266559601e-03</internalNodes>
          <leafValues>
            2.2257466614246368e-01 -9.7949814796447754e-01</leafValues></_>
        <_>
          <internalNodes>
            0 -1 67 -3.7216965109109879e-02</internalNodes>
          <leafValues>
            6.7340302467346191e-01 -4.0057662129402161e-01</leafValues></_>
        <_>
          <internalNodes>
            0 -1 32 1.0313540697097778e-03</internalNodes>
          <leafValues>
            2.1652409434318542e-01 -9.3437790870666504e-01</leafValues></_>
        <_>
          <internalNodes>
            0 -1 26 3.0840057879686356e-02</internalNodes>
          <leafValues>
            -3.9006105065345764e-01 5.4224157333374023e-01</leafValues></_></weakClassifiers></_>
    <!-- stage 4 -->
    <_>
      <maxWeakCount>8</maxWeakCount>
      <stageThreshold>-9.6737337112426758e-01</stageThreshold>
      <weakClassifiers>
        <_>
          <internalNodes>
            0 -1 36 -6.6143702715635300e-03</internalNodes>
          <leafValues>
            -8.7301588058471680e-01 5.2971577644348145e-01</leafValues></_>
        <_>
          <internalNodes>
            0 -1 20 -4.2291433783248067e-04</internalNodes>
          <leafValues>
            4.0126270055770874e-01 -5.6404966115951538e-01</leafValues></_>
        <_>
          <internalNodes>
            0 -1 46 6.3893217593431473e-03</internalNodes>
          <leafValues>
            -3.6004975438117981e-01 6.4311164617538452e-01</leafValues></_>
        <_>
          <internalNodes>
            0 -1 65 2.5089750997722149e-03</internalNodes>
          <leafValues>
            -3.4749954938888550e-01 6.1112558841705322e-01</leafValues></_>
        <_>
          <internalNodes>
            0 -1 15 -6.1934501864016056e-03</internalNodes>
          <leafValues>
            4.2423892021179199e-01 -4.9919819831848145e-01</leafValues></_>
        <_>
          <internalNodes>
            0 -1 62 -6.8268018367234617e-05</internalNodes>
          <leafValues>
            2.3880979418754578e-01 -9.1847527027130127e-01</leafValues></_>
        <_>
          <internalNodes>
            0 -1 30 1.2419680133461952e-03</internalNodes>
          <leafValues>
            2.2455649077892303e-01 -8.1313085556030273e-01</leafValues></_>
        <_>
          <internalNodes>
            0 -1 29 -1.5168663812801242e-03</internalNodes>
          <leafValues>
            2.0991192758083344e-01 -7.4150961637496948e-01</leafValues></_></weakClassifiers></_>
    <!-- stage 5 -->
    <_>
      <maxWeakCount>7</maxWeakCount>
      <stageThreshold>-5.1105403900146484e-01</stageThreshold>
      <weakClassifiers>
        <_>
          <internalNodes>
            0 -1 27 -5.6418076157569885e-02</internalNodes>
          <leafValues>
            -7.4757283926010132e-01 5.2797204256057739e-01</leafValues></_>
        <_>
          <internalNodes>
            0 -1 3 3.1467154622077942e-02</internalNodes>
          <leafValues>
            -3.3032140135765076e-01 7.3385632038116455e-01</leafValues></_>
        <_>
          <internalNodes>
            0 -1 52 7.5714546255767345e-04</internalNodes>
          <leafValues>
            2.7957677841186523e-01 -9.0917021036148071e-01</leafValues></_>
        <_>
          <internalNodes>
            0 -1 54 -2.4414490908384323e-03</internalNodes>
          <leafValues>
            -9.4102364778518677e-01 1.7765648663043976e-01</leafValues></_>
        <_>
          <internalNodes>
            0 -1 61 1.3675768859684467e-03</internalNodes>
          <leafValues>
            1.9589564204216003e-01 -8.8118028640747070e-01</leafValues></_>
        <_>
          <internalNodes>
            0 -1 66 2.0410870201885700e-03</internalNodes>
          <leafValues>
            -6.5383011102676392e-01 2.8555896878242493e-01</leafValues></_>
        <_>
          <internalNodes>
            0 -1 17 2.7193419635295868e-02</internalNodes>
          <leafValues>
            -3.7184771895408630e-01 5.8326518535614014e-01</leafValues></_></weakClassifiers></_>
    <!-- stage 6 -->
    <_>
      <maxWeakCount>8</maxWeakCount>
      <stageThreshold>-7.8512591123580933e-01</stageThreshold>
      <weakClassifiers>
        <_>
          <internalNodes>
            0 -1 49 -4.8082293942570686e-03</internalNodes>
          <leafValues>
            5.6450134515762329e-01 -6.4980542659759521e-01</leafValues></_>
        <_>
          <internalNodes>
            0 -1 12 -1.2506573460996151e-02</internalNodes>
          <leafValues>
            2.9705730080604553e-01 -8.0398720502853394e-01</leafValues></_>
        <_>
          <internalNodes>
            0 -1 39 -4.6656694263219833e-02</internalNodes>
          <leafValues>
            -7.8047549724578857e-01 2.2490669786930084e-01</leafValues></_>
        <_>
          <internalNodes>
            0 -1 22 4.5907227322459221e-03</internalNodes>
          <leafValues>
            2.2304747998714447e-01 -8.3730792999267578e-01</leafValues></_>
        <_>
          <internalNodes>
            0 -1 50 -5.6472355499863625e-03</internalNodes>
          <leafValues>
            -8.6649614572525024e-01 1.3255658745765686e-01</leafValues></_>
        <_>
          <internalNodes>
            0 -1 56 -1.3601577375084162e-03</internalNodes>
          <leafValues>
            1.6092434525489807e-01 -9.4528156518936157e-01</leafValues></_>
        <_>
          <internalNodes>
            0 -1 37 -1.0157752782106400e-02</internalNodes>
          <leafValues>
            5.9068828821182251e-01 -3.4328442811965942e-01</leafValues></_>
        <_>
          <internalNodes>
            0 -1 23 -1.8470557406544685e-02</internalNodes>
          <leafValues>
            -8.7714207172393799e-01 1.7485377192497253e-01</leafValues></_></weakClassifiers></_>
    <!-- stage 7 -->
    <_>
      <maxWeakCount>9</maxWeakCount>
      <stageThreshold>-8.6245876550674438e-01</stageThreshold>
      <weakClassifiers>
        <_>
          <internalNodes>
            0 -1 60 -1.3992987573146820e-02</internalNodes>
          <leafValues>
            -7.1428573131561279e-01 5.1874452829360962e-01</leafValues></_>
        <_>
          <internalNodes>
            0 -1 14 -1.8826681189239025e-03</internalNodes>
          <leafValues>
            4.0554851293563843e-01 -5.5595976114273071e-01</leafValues></_>
        <_>
          <internalNodes>
            0 -1 16 -7.4892984703183174e-03</internalNodes>
          <leafValues>
            5.8342373371124268e-01 -3.8888251781463623e-01</leafValues></_>
        <_>
          <internalNodes>
            0 -1 59 -4.6857795678079128e-03</internalNodes>
          <leafValues>
            2.5275766849517822e-01 -8.1229919195175171e-01</leafValues></_>
        <_>
          <internalNodes>
            0 -1 31 -7.3658060282468796e-03</internalNodes>
          <leafValues>
            -8.0486184358596802e-01 1.6394479572772980e-01</leafValues></_>
        <_>
          <internalNodes>
            0 -1 19 -2.2011329419910908e-03</internalNodes>
          <leafValues>
            2.3539444804191589e-01 -6.9180011749267578e-01</leafValues></_>
        <_>
          <internalNodes>
            0 -1 25 -3.0585799831897020e-03</internalNodes>
          <leafValues>
            3.5271885991096497e-01 -5.2653527259826660e-01</leafValues></_>
        <_>
          <internalNodes>
            0 -1 58 1.2417430989444256e-02</internalNodes>
          <leafValues>
            1.8719403445720673e-01 -8.7459093332290649e-01</leafValues></_>
        <_>
          <internalNodes>
            0 -1 1 2.2034142166376114e-02</internalNodes>
          <leafValues>
            -4.8039823770523071e-01 3.2323855161666870e-01</leafValues></_></weakClassifiers></_>
    <!-- stage 8 -->
    <_>
      <maxWeakCount>9</maxWeakCount>
      <stageThreshold>-6.4374727010726929e-01</stageThreshold>
      <weakClassifiers>
        <_>
          <internalNodes>
            0 -1 5 4.5394990593194962e-03</internalNodes>
          <leafValues>
            -6.5367966890335083e-01 5.3708666563034058e-01</leafValues></_>
        <_>
          <internalNodes>
            0 -1 45 4.5351739972829819e-03</internalNodes>
          <leafValues>
            -3.5472926497459412e-01 4.6922603249549866e-01</leafValues></_>
        <_>
          <internalNodes>
            0 -1 68 -1.0282422415912151e-02</internalNodes>
          <leafValues>
            6.8429440259933472e-01 -2.4626091122627258e-01</leafValues></_>
        <_>
          <internalNodes>
            0 -1 44 -3.9563160389661789e-03</internalNodes>
          <leafValues>
            -9.3455356359481812e-01 2.2245910763740540e-01</leafValues></_>
        <_>
          <internalNodes>
            0 -1 0 1.7577210068702698e-01</internalNodes>
          <leafValues>
            -3.7111979722976685e-01 6.0404902696609497e-01</leafValues></_>
        <_>
          <internalNodes>
            0 -1 6 -7.7647782862186432e-02</internalNodes>
          <leafValues>
            -9.8485541343688965e-01 2.1325503289699554e-01</leafValues></_>
        <_>
          <internalNodes>
            0 -1 10 -4.3389694765210152e-03</internalNodes>
          <leafValues>
            2.8829637169837952e-01 -5.6380361318588257e-01</leafValues></_>
        <_>
          <internalNodes>
            0 -1 24 2.5284753646701574e-03</internalNodes>
          <leafValues>
            1.4762040972709656e-01 -9.7094696760177612e-01</leafValues></_>
        <_>
          <internalNodes>
            0 -1 35 -1.6902560601010919e-03</internalNodes>
          <leafValues>
            -9.2023175954818726e-01 1.1041140556335449e-01</leafValues></_></weakClassifiers></_>
    <!-- stage 9 -->
    <_>
      <maxWeakCount>8</maxWeakCount>
      <stageThreshold>-8.6573380231857300e-01</stageThreshold>
      <weakClassifiers>
        <_>
          <internalNodes>
            0 -1 53 -1.9130369648337364e-02</internalNodes>
          <leafValues>
            -9.6638655662536621e-01 4.5897644758224487e-01</leafValues></_>
        <_>
          <internalNodes>
            0 -1 42 -5.4436381906270981e-03</internalNodes>
          <leafValues>
            3.7809705734252930e-01 -5.6508207321166992e-01</leafValues></_>
        <_>
          <internalNodes>
            0 -1 38 1.9638586789369583e-02</internalNodes>
          <leafValues>
            -3.9083033800125122e-01 5.5035626888275146e-01</leafValues></_>
        <_>
          <internalNodes>
            0 -1 11 -1.3488316908478737e-03</internalNodes>
          <leafValues>
            3.9234322309494019e-01 -4.4368880987167358e-01</leafValues></_>
        <_>
          <internalNodes>
            0 -1 7 -1.5170851256698370e-03</internalNodes>
          <leafValues>
            3.8862937688827515e-01 -4.3444728851318359e-01</leafValues></_>
        <_>
          <internalNodes>
            0 -1 33 -5.8153993450105190e-04</internalNodes>
          <leafValues>
            2.0493757724761963e-01 -7.3383033275604248e-01</leafValues></_>
        <_>
          <internalNodes>
            0 -1 9 -7.1339666843414307e-02</internalNodes>
          <leafValues>
            -9.1005241870880127e-01 1.7263552546501160e-01</leafValues></_>
        <_>
          <internalNodes>
            0 -1 55 -2.7570989914238453e-03</internalNodes>
          <leafValues>
            -9.1521304845809937e-01 1.3176520168781281e-01</leafValues></_></weakClassifiers></_></stages>
  <features>
    <_>
      <rects>
        <_>
          0 1 8 18 -1.</_>
        <_>
          4 1 4 18 2.</_></rects>
      <tilted>0</tilted></_>
    <_>
      <rects>
        <_>
          0 2 10 5 -1.</_>
        <_>
          5 2 5 5 2.</_></rects>
      <tilted>0</tilted></_>
    <_>
      <rects>
        <_>
          0 6 4 9 -1.</_>
        <_>
          2 6 2 9 2.</_></rects>
      <tilted>0</tilted></_>
    <_>
      <rects>
        <_>
          0 9 4 6 -1.</_>
        <_>
          2 9 2 6 2.</_></rects>
      <tilted>0</tilted></_>
    <_>
      <rects>
        <_>
          2 16 10 4 -1.</_>
        <_>
          2 18 10 2 2.</_></rects>
      <tilted>0</tilted></_>
    <_>
      <rects>
        <_>
          3 4 10 12 -1.</_>
        <_>
          3 8 10 4 3.</_></rects>
      <tilted>0</tilted></_>
    <_>
      <rects>
        <_>
          3 8 10 6 -1.</_>
        <_>
          8 8 5 6 2.</_></rects>
      <tilted>0</tilted></_>
    <_>
      <rects>
        <_>
          3 15 4 2 -1.</_>
        <_>
          3 16 4 1 2.</_></rects>
      <tilted>0</tilted></_>
    <_>
      <rects>
        <_>
          4 0 13 4 -1.</_>
        <_>
          4 2 13 2 2.</_></rects>
      <tilted>0</tilted></_>
    <_>
      <rects>
        <_>
          4 3 12 11 -1.</_>
        <_>
          8 3 4 11 3.</_></rects>
      <tilted>0</tilted></_>
    <_>
      <rects>
        <_>
          4 5 6 3 -1.</_>
        <_>
          7 5 3 3 2.</_></rects>
      <tilted>0</tilted></_>
    <_>
      <rects>
        <_>
          4 6 2 3 -1.</_>
        <_>
          5 6 1 3 2.</_></rects>
      <tilted>0</tilted></_>
    <_>
      <rects>
        <_>
          4 8 14 3 -1.</_>
        <_>
          11 8 7 3 2.</_></rects>
      <tilted>0</tilted></_>
    <_>
      <rects>
        <_>
          4 9 2 5 -1.</_>
        <_>
          5 9 1 5 2.</_></rects>
      <tilted>0</tilted></_>
    <_>
      <rects>
        <_>
          4 10 2 4 -1.</_>
        <_>
          5 10 1 4 2.</_></rects>
      <tilted>0</tilted></_>
    <_>
      <rects>
        <_>
          4 15 4 4 -1.</_>
        <_>
          4 17 4 2 2.</_></rects>
      <tilted>0</tilted></_>
    <_>
      <rects>
        <_>
          4 18 12 2 -1.</_>
        <_>
          4 19 12 1 2.</_></rects>
      <tilted>0</tilted></_>
    <_>
      <rects>
        <_>
          5 0 7 4 -1.</_>
        <_>
          5 2 7 2 2.</_></rects>
      <tilted>0</tilted></_>
    <_>
      <rects>
        <_>
          5 0 10 4 -1.</_>
        <_>
          5 2 10 2 2.</_></rects>
      <tilted>0</tilted></_>
    <_>
      <rects>
        <_>
          5 4 6 5 -1.</_>
        <_>
          8 4 3 5 2.</_></rects>
      <tilted>0</tilted></_>
    <_>
      <rects>
        <_>
          5 5 2 2 -1.</_>
        <_>
          6 5 1 2 2.</_></rects>
      <tilted>0</tilted></_>
    <_>
      <rects>
        <_>
          5 5 6 3 -1.</_>
        <_>
          8 5 3 3 2.</_></rects>
      <tilted>0</tilted></_>
    <_>
      <rects>
        <_>
          5 5 11 4 -1.</_>
        <_>
          5 7 11 2 2.</_></rects>
      <tilted>0</tilted></_>
    <_>
      <rects>
        <_>
          5 8 8 2 -1.</_>
        <_>
          9 8 4 2 2.</_></rects>
      <tilted>0</tilted></_>
    <_>
      <rects>
        <_>
          5 13 8 1 -1.</_>
        <_>
          9 13 4 1 2.</_></rects>
      <tilted>0</tilted></_>
    <_>
      <rects>
        <_>
          5 15 4 4 -1.</_>
        <_>
          5 17 4 2 2.</_></rects>
      <tilted>0</tilted></_>
    <_>
      <rects>
        <_>
          6 0 7 4 -1.</_>
        <_>
          6 2 7 2 2.</_></rects>
      <tilted>0</tilted></_>
    <_>
      <rects>
        <_>
          6 3 6 13 -1.</_>
        <_>
          9 3 3 13 2.</_></rects>
      <tilted>0</tilted></_>
    <_>
      <rects>
        <_>
          6 3 8 13 -1.</_>
        <_>
          10 3 4 13 2.</_></rects>
      <tilted>0</tilted></_>
    <_>
      <rects>
        <_>
          7 4 4 4 -1.</_>
        <_>
          9 4 2 4 2.</_></rects>
      <tilted>0</tilted></_>
    <_>
      <rects>
        <_>
          7 4 6 6 -1.</_>
        <_>
          7 6 6 2 3.</_></rects>
      <tilted>0</tilted></_>
    <_>
      <rects>
        <_>
          7 4 9 12 -1.</_>
        <_>
          7 8 9 4 3.</_></rects>
      <tilted>0</tilted></_>
    <_>
      <rects>
        <_>
          7 5 4 3 -1.</_>
        <_>
          9 5 2 3 2.</_></rects>
      <tilted>0</tilted></_>
    <_>
      <rects>
        <_>
          7 6 9 1 -1.</_>
        <_>
          10 6 3 1 3.</_></rects>
      <tilted>0</tilted></_>
    <_>
      <rects>
        <_>
          7 7 5 4 -1.</_>
        <_>
          7 9 5 2 2.</_></rects>
      <tilted>0</tilted></_>
    <_>
      <rects>
        <_>
          7 13 1 3 -1.</_>
        <_>
          7 14 1 1 3.</_></rects>
      <tilted>0</tilted></_>
    <_>
      <rects>
        <_>
          7 13 8 1 -1.</_>
        <_>
          11 13 4 1 2.</_></rects>
      <tilted>0</tilted></_>
    <_>
      <rects>
        <_>
          7 18 8 2 -1.</_>
        <_>
          7 19 8 1 2.</_></rects>
      <tilted>0</tilted></_>
    <_>
      <rects>
        <_>
          8 0 4 4 -1.</_>
        <_>
          8 2 4 2 2.</_></rects>
      <tilted>0</tilted></_>
    <_>
      <rects>
        <_>
          8 3 8 10 -1.</_>
        <_>
          8 8 8 5 2.</_></rects>
      <tilted>0</tilted></_>
    <_>
      <rects>
        <_>
          8 4 6 7 -1.</_>
        <_>
          11 4 3 7 2.</_></rects>
      <tilted>0</tilted></_>
    <_>
      <rects>
        <_>
          8 4 4 8 -1.</_>
        <_>
          8 8 4 4 2.</_></rects>
      <tilted>0</tilted></_>
    <_>
      <rects>
        <_>
          8 5 6 6 -1.</_>
        <_>
          8 5 3 3 2.</_>
        <_>
          11 8 3 3 2.</_></rects>
      <tilted>0</tilted></_>
    <_>
      <rects>
        <_>
          8 9 4 6 -1.</_>
        <_>
          8 12 4 3 2.</_></rects>
      <tilted>0</tilted></_>
    <_>
      <rects>
        <_>
          8 13 4 4 -1.</_>
        <_>
          8 15 4 2 2.</_></rects>
      <tilted>0</tilted></_>
    <_>
      <rects>
        <_>
          8 17 6 2 -1.</_>
        <_>
          11 17 3 2 2.</_></rects>
      <tilted>0</tilted></_>
    <_>
      <rects>
        <_>
          9 1 7 2 -1.</_>
        <_>
          9 2 7 1 2.</_></rects>
      <tilted>0</tilted></_>
    <_>
      <rects>
        <_>
          9 3 3 4 -1.</_>
        <_>
          9 5 3 2 2.</_></rects>
      <tilted>0</tilted></_>
    <_>
      <rects>
        <_>
          9 3 3 12 -1.</_>
        <_>
          9 9 3 6 2.</_></rects>
      <tilted>0</tilted></_>
    <_>
      <rects>
        <_>
          9 5 6 11 -1.</_>
        <_>
          11 5 2 11 3.</_></rects>
      <tilted>0</tilted></_>
    <_>
      <rects>
        <_>
          9 5 6 2 -1.</_>
        <_>
          12 5 3 2 2.</_></rects>
      <tilted>0</tilted></_>
    <_>
      <rects>
        <_>
          9 6 6 10 -1.</_>
        <_>
          9 11 6 5 2.</_></rects>
      <tilted>0</tilted></_>
    <_>
      <rects>
        <_>
          9 10 4 6 -1.</_>
        <_>
          9 12 4 2 3.</_></rects>
      <tilted>0</tilted></_>
    <_>
      <rects>
        <_>
          9 11 6 4 -1.</_>
        <_>
          11 11 2 4 3.</_></rects>
      <tilted>0</tilted></_>
    <_>
      <rects>
        <_>
          10 12 3 3 -1.</_>
        <_>
          10 13 3 1 3.</_></rects>
      <tilted>0</tilted></_>
    <_>
      <rects>
        <_>
          10 12 4 3 -1.</_>
        <_>
          10 13 4 1 3.</_></rects>
      <tilted>0</tilted></_>
    <_>
      <rects>
        <_>
          11 3 1 14 -1.</_>
        <_>
          11 10 1 7 2.</_></rects>
      <tilted>0</tilted></_>
    <_>
      <rects>
        <_>
          11 4 1 4 -1.</_>
        <_>
          11 6 1 2 2.</_></rects>
      <tilted>0</tilted></_>
    <_>
      <rects>
        <_>
          11 4 4 12 -1.</_>
        <_>
          11 8 4 4 3.</_></rects>
      <tilted>0</tilted></_>
    <_>
      <rects>
        <_>
          11 5 4 10 -1.</_>
        <_>
          11 10 4 5 2.</_></rects>
      <tilted>0</tilted></_>
    <_>
      <rects>
        <_>
          11 6 3 8 -1.</_>
        <_>
          11 10 3 4 2.</_></rects>
      <tilted>0</tilted></_>
    <_>
      <rects>
        <_>
          11 12 3 3 -1.</_>
        <_>
          11 13 3 1 3.</_></rects>
      <tilted>0</tilted></_>
    <_>
      <rects>
        <_>
          12 3 1 10 -1.</_>
        <_>
          12 8 1 5 2.</_></rects>
      <tilted>0</tilted></_>
    <_>
      <rects>
        <_>
          12 4 2 6 -1.</_>
        <_>
          12 7 2 3 2.</_></rects>
      <tilted>0</tilted></_>
    <_>
      <rects>
        <_>
          12 7 1 10 -1.</_>
        <_>
          12 12 1 5 2.</_></rects>
      <tilted>0</tilted></_>
    <_>
      <rects>
        <_>
          12 16 4 2 -1.</_>
        <_>
          12 17 4 1 2.</_></rects>
      <tilted>0</tilted></_>
    <_>
      <rects>
        <_>
          13 7 4 4 -1.</_>
        <_>
          15 7 2 4 2.</_></rects>
      <tilted>0</tilted></_>
    <_>
      <rects>
        <_>
          16 5 4 15 -1.</_>
        <_>
          18 5 2 15 2.</_></rects>
      <tilted>0</tilted></_>
    <_>
      <rects>
        <_>
          18 9 2 6 -1.</_>
        <_>
          19 9 1 6 2.</_></rects>
      <tilted>0</tilted></_></features></cascade>
</opencv_storage>
