<?xml version="1.0"?>
<opencv_storage>
<stage9>
  <maxWeakCount>9</maxWeakCount>
  <stageThreshold>-7.0442116260528564e-01</stageThreshold>
  <weakClassifiers>
    <_>
      <internalNodes>
        0 -1 258186 -4.2715393006801605e-02</internalNodes>
      <leafValues>
        -8.6826348304748535e-01 5.0295859575271606e-01</leafValues></_>
    <_>
      <internalNodes>
        0 -1 260870 -3.2679075375199318e-03</internalNodes>
      <leafValues>
        3.2781699299812317e-01 -6.1591929197311401e-01</leafValues></_>
    <_>
      <internalNodes>
        0 -1 163526 4.2945094406604767e-02</internalNodes>
      <leafValues>
        -3.5139396786689758e-01 6.0287481546401978e-01</leafValues></_>
    <_>
      <internalNodes>
        0 -1 189648 -2.4059638963080943e-04</internalNodes>
      <leafValues>
        3.6640998721122742e-01 -5.3980457782745361e-01</leafValues></_>
    <_>
      <internalNodes>
        0 -1 305805 -9.5964670181274414e-03</internalNodes>
      <leafValues>
        -9.3959343433380127e-01 1.9841921329498291e-01</leafValues></_>
    <_>
      <internalNodes>
        0 -1 285332 -5.3852464770898223e-04</internalNodes>
      <leafValues>
        1.8128159642219543e-01 -7.4702113866806030e-01</leafValues></_>
    <_>
      <internalNodes>
        0 -1 149778 -1.6467010602355003e-02</internalNodes>
      <leafValues>
        -8.1587004661560059e-01 2.0235647261142731e-01</leafValues></_>
    <_>
      <internalNodes>
        0 -1 337965 -2.0754230208694935e-03</internalNodes>
      <leafValues>
        -8.2948178052902222e-01 1.6876865923404694e-01</leafValues></_>
    <_>
      <internalNodes>
        0 -1 286068 -3.9516270160675049e-02</internalNodes>
      <leafValues>
        -9.2981660366058350e-01 1.5323258936405182e-01</leafValues></_></weakClassifiers></stage9>
</opencv_storage>
