<?xml version="1.0"?>
<opencv_storage>
<stage9>
  <maxWeakCount>8</maxWeakCount>
  <stageThreshold>-8.6573380231857300e-01</stageThreshold>
  <weakClassifiers>
    <_>
      <internalNodes>
        0 -1 57829 -1.9130369648337364e-02</internalNodes>
      <leafValues>
        -9.6638655662536621e-01 4.5897644758224487e-01</leafValues></_>
    <_>
      <internalNodes>
        0 -1 52106 -5.4436381906270981e-03</internalNodes>
      <leafValues>
        3.7809705734252930e-01 -5.6508207321166992e-01</leafValues></_>
    <_>
      <internalNodes>
        0 -1 50170 1.9638586789369583e-02</internalNodes>
      <leafValues>
        -3.9083033800125122e-01 5.5035626888275146e-01</leafValues></_>
    <_>
      <internalNodes>
        0 -1 31179 -1.3488316908478737e-03</internalNodes>
      <leafValues>
        3.9234322309494019e-01 -4.4368880987167358e-01</leafValues></_>
    <_>
      <internalNodes>
        0 -1 27702 -1.5170851256698370e-03</internalNodes>
      <leafValues>
        3.8862937688827515e-01 -4.3444728851318359e-01</leafValues></_>
    <_>
      <internalNodes>
        0 -1 47689 -5.8153993450105190e-04</internalNodes>
      <leafValues>
        2.0493757724761963e-01 -7.3383033275604248e-01</leafValues></_>
    <_>
      <internalNodes>
        0 -1 29960 -7.1339666843414307e-02</internalNodes>
      <leafValues>
        -9.1005241870880127e-01 1.7263552546501160e-01</leafValues></_>
    <_>
      <internalNodes>
        0 -1 61867 -2.7570989914238453e-03</internalNodes>
      <leafValues>
        -9.1521304845809937e-01 1.3176520168781281e-01</leafValues></_></weakClassifiers></stage9>
</opencv_storage>
