<?xml version="1.0"?>
<opencv_storage>
<stage7>
  <maxWeakCount>9</maxWeakCount>
  <stageThreshold>-8.6245876550674438e-01</stageThreshold>
  <weakClassifiers>
    <_>
      <internalNodes>
        0 -1 64208 -1.3992987573146820e-02</internalNodes>
      <leafValues>
        -7.1428573131561279e-01 5.1874452829360962e-01</leafValues></_>
    <_>
      <internalNodes>
        0 -1 32650 -1.8826681189239025e-03</internalNodes>
      <leafValues>
        4.0554851293563843e-01 -5.5595976114273071e-01</leafValues></_>
    <_>
      <internalNodes>
        0 -1 34172 -7.4892984703183174e-03</internalNodes>
      <leafValues>
        5.8342373371124268e-01 -3.8888251781463623e-01</leafValues></_>
    <_>
      <internalNodes>
        0 -1 64023 -4.6857795678079128e-03</internalNodes>
      <leafValues>
        2.5275766849517822e-01 -8.1229919195175171e-01</leafValues></_>
    <_>
      <internalNodes>
        0 -1 47189 -7.3658060282468796e-03</internalNodes>
      <leafValues>
        -8.0486184358596802e-01 1.6394479572772980e-01</leafValues></_>
    <_>
      <internalNodes>
        0 -1 36341 -2.2011329419910908e-03</internalNodes>
      <leafValues>
        2.3539444804191589e-01 -6.9180011749267578e-01</leafValues></_>
    <_>
      <internalNodes>
        0 -1 39549 -3.0585799831897020e-03</internalNodes>
      <leafValues>
        3.5271885991096497e-01 -5.2653527259826660e-01</leafValues></_>
    <_>
      <internalNodes>
        0 -1 63771 1.2417430989444256e-02</internalNodes>
      <leafValues>
        1.8719403445720673e-01 -8.7459093332290649e-01</leafValues></_>
    <_>
      <internalNodes>
        0 -1 1694 2.2034142166376114e-02</internalNodes>
      <leafValues>
        -4.8039823770523071e-01 3.2323855161666870e-01</leafValues></_></weakClassifiers></stage7>
</opencv_storage>
