<?xml version="1.0"?>
<opencv_storage>
<stage8>
  <maxWeakCount>7</maxWeakCount>
  <stageThreshold>-6.7722934484481812e-01</stageThreshold>
  <weakClassifiers>
    <_>
      <internalNodes>
        0 -1 363254 4.7168269520625472e-04</internalNodes>
      <leafValues>
        -4.4117647409439087e-01 5.9405940771102905e-01</leafValues></_>
    <_>
      <internalNodes>
        0 -1 242062 5.6026978418231010e-03</internalNodes>
      <leafValues>
        3.0042624473571777e-01 -8.4384506940841675e-01</leafValues></_>
    <_>
      <internalNodes>
        0 -1 218532 -1.5713043510913849e-02</internalNodes>
      <leafValues>
        6.6943687200546265e-01 -3.3350238204002380e-01</leafValues></_>
    <_>
      <internalNodes>
        0 -1 245108 2.4343978147953749e-03</internalNodes>
      <leafValues>
        -5.7176542282104492e-01 3.4269931912422180e-01</leafValues></_>
    <_>
      <internalNodes>
        0 -1 272373 -4.2507142643444240e-04</internalNodes>
      <leafValues>
        1.7841611802577972e-01 -9.8226433992385864e-01</leafValues></_>
    <_>
      <internalNodes>
        0 -1 382573 1.4475549571216106e-02</internalNodes>
      <leafValues>
        -2.9805892705917358e-01 6.9450050592422485e-01</leafValues></_>
    <_>
      <internalNodes>
        0 -1 3888 8.1113658845424652e-02</internalNodes>
      <leafValues>
        -3.1699779629707336e-01 5.9746807813644409e-01</leafValues></_></weakClassifiers></stage8>
</opencv_storage>
