<?xml version="1.0"?>
<opencv_storage>
<stage1>
  <maxWeakCount>5</maxWeakCount>
  <stageThreshold>-7.8736943006515503e-01</stageThreshold>
  <weakClassifiers>
    <_>
      <internalNodes>
        0 -1 56851 -5.0993375480175018e-03</internalNodes>
      <leafValues>
        5.5982530117034912e-01 -9.3170732259750366e-01</leafValues></_>
    <_>
      <internalNodes>
        0 -1 34646 3.0238771811127663e-02</internalNodes>
      <leafValues>
        -4.2127990722656250e-01 7.5025427341461182e-01</leafValues></_>
    <_>
      <internalNodes>
        0 -1 36766 -2.2846404463052750e-03</internalNodes>
      <leafValues>
        4.4327992200851440e-01 -8.3261805772781372e-01</leafValues></_>
    <_>
      <internalNodes>
        0 -1 21564 -2.4931874126195908e-02</internalNodes>
      <leafValues>
        7.4247467517852783e-01 -3.9792099595069885e-01</leafValues></_>
    <_>
      <internalNodes>
        0 -1 67469 -7.7535528689622879e-03</internalNodes>
      <leafValues>
        -9.6814411878585815e-01 3.0462419986724854e-01</leafValues></_></weakClassifiers></stage1>
</opencv_storage>
