<?xml version="1.0"?>
<opencv_storage>
<stage1>
  <maxWeakCount>5</maxWeakCount>
  <stageThreshold>-8.9794617891311646e-01</stageThreshold>
  <weakClassifiers>
    <_>
      <internalNodes>
        0 -1 233747 -4.5186486095190048e-03</internalNodes>
      <leafValues>
        -8.7387388944625854e-01 5.7092195749282837e-01</leafValues></_>
    <_>
      <internalNodes>
        0 -1 50394 -1.2680910527706146e-02</internalNodes>
      <leafValues>
        7.7105247974395752e-01 -3.8633406162261963e-01</leafValues></_>
    <_>
      <internalNodes>
        0 -1 257124 -1.7694844864308834e-03</internalNodes>
      <leafValues>
        3.8335910439491272e-01 -7.9693412780761719e-01</leafValues></_>
    <_>
      <internalNodes>
        0 -1 241150 1.5262764645740390e-04</internalNodes>
      <leafValues>
        -8.9008390903472900e-01 3.4514096379280090e-01</leafValues></_>
    <_>
      <internalNodes>
        0 -1 121419 1.8109519034624100e-02</internalNodes>
      <leafValues>
        -5.1719826459884644e-01 6.0448396205902100e-01</leafValues></_></weakClassifiers></stage1>
</opencv_storage>
