<?xml version="1.0"?>
<opencv_storage>
<stage1>
  <maxWeakCount>6</maxWeakCount>
  <stageThreshold>-3.8660073280334473e-01</stageThreshold>
  <weakClassifiers>
    <_>
      <internalNodes>
        0 -1 52056 2.3454040288925171e-02</internalNodes>
      <leafValues>
        -4.7307690978050232e-01 8.3855420351028442e-01</leafValues></_>
    <_>
      <internalNodes>
        0 -1 63657 -7.3141197208315134e-04</internalNodes>
      <leafValues>
        5.6165421009063721e-01 -6.8851596117019653e-01</leafValues></_>
    <_>
      <internalNodes>
        0 -1 26148 -3.2182228751480579e-03</internalNodes>
      <leafValues>
        6.0370004177093506e-01 -4.3832275271415710e-01</leafValues></_>
    <_>
      <internalNodes>
        0 -1 43426 -1.4474883675575256e-02</internalNodes>
      <leafValues>
        2.9899069666862488e-01 -8.8851028680801392e-01</leafValues></_>
    <_>
      <internalNodes>
        0 -1 30878 -1.7472229956183583e-04</internalNodes>
      <leafValues>
        3.0287146568298340e-01 -8.2094216346740723e-01</leafValues></_>
    <_>
      <internalNodes>
        0 -1 22253 2.5680821388959885e-02</internalNodes>
      <leafValues>
        -4.3057003617286682e-01 7.3255902528762817e-01</leafValues></_></weakClassifiers></stage1>
</opencv_storage>
